<?xml version="1.0"?>
<opencv_storage>
<cascade>
  <stageType>BOOST</stageType>
  <featureType>HAAR</featureType>
  <height>24</height>
  <width>24</width>
  <stageParams>
    <boostType>GAB</boostType>
    <minHitRate>9.9500000476837158e-01</minHitRate>
    <maxFalseAlarm>5.0000000000000000e-01</maxFalseAlarm>
    <weightTrimRate>9.4999998807907104e-01</weightTrimRate>
    <maxDepth>1</maxDepth>
    <maxWeakCount>100</maxWeakCount></stageParams>
  <featureParams>
    <maxCatCount>0</maxCatCount>
    <featSize>1</featSize>
    <mode>BASIC</mode></featureParams>
  <stageNum>5</stageNum>
  <stages>
    <!-- stage 0 -->
    <_>
      <maxWeakCount>1</maxWeakCount>
      <stageThreshold>9.7231835126876831e-01</stageThreshold>
      <weakClassifiers>
        <_>
          <internalNodes>
            0 -1 6 -3.1081038713455200e-01</internalNodes>
          <leafValues>
            9.7231835126876831e-01 -1.</leafValues></_></weakClassifiers></_>
    <!-- stage 1 -->
    <_>
      <maxWeakCount>1</maxWeakCount>
      <stageThreshold>8.6885243654251099e-01</stageThreshold>
      <weakClassifiers>
        <_>
          <internalNodes>
            0 -1 7 4.7259464859962463e-02</internalNodes>
          <leafValues>
            -1. 8.6885243654251099e-01</leafValues></_></weakClassifiers></_>
    <!-- stage 2 -->
    <_>
      <maxWeakCount>2</maxWeakCount>
      <stageThreshold>-6.5099351108074188e-02</stageThreshold>
      <weakClassifiers>
        <_>
          <internalNodes>
            0 -1 3 -9.7391471266746521e-02</internalNodes>
          <leafValues>
            8.8513511419296265e-01 -9.8786652088165283e-01</leafValues></_>
        <_>
          <internalNodes>
            0 -1 0 1.4489862322807312e-01</internalNodes>
          <leafValues>
            -9.4805866479873657e-01 9.2276716232299805e-01</leafValues></_></weakClassifiers></_>
    <!-- stage 3 -->
    <_>
      <maxWeakCount>3</maxWeakCount>
      <stageThreshold>-1.2268702983856201e+00</stageThreshold>
      <weakClassifiers>
        <_>
          <internalNodes>
            0 -1 4 1.8694091588258743e-02</internalNodes>
          <leafValues>
            -9.8483204841613770e-01 5.3591161966323853e-01</leafValues></_>
        <_>
          <internalNodes>
            0 -1 8 -7.4391812086105347e-02</internalNodes>
          <leafValues>
            6.6659712791442871e-01 -9.1756606101989746e-01</leafValues></_>
        <_>
          <internalNodes>
            0 -1 2 4.8356741666793823e-02</internalNodes>
          <leafValues>
            -8.4521579742431641e-01 8.4952843189239502e-01</leafValues></_></weakClassifiers></_>
    <!-- stage 4 -->
    <_>
      <maxWeakCount>2</maxWeakCount>
      <stageThreshold>-4.5639201998710632e-01</stageThreshold>
      <weakClassifiers>
        <_>
          <internalNodes>
            0 -1 5 -5.4046154022216797e-02</internalNodes>
          <leafValues>
            5.9006214141845703e-01 -9.3977153301239014e-01</leafValues></_>
        <_>
          <internalNodes>
            0 -1 1 -3.7551220506429672e-02</internalNodes>
          <leafValues>
            4.8337951302528381e-01 -1.</leafValues></_></weakClassifiers></_></stages>
  <features>
    <_>
      <rects>
        <_>
          0 3 12 17 -1.</_>
        <_>
          4 3 4 17 3.</_></rects>
      <tilted>0</tilted></_>
    <_>
      <rects>
        <_>
          1 12 7 12 -1.</_>
        <_>
          1 18 7 6 2.</_></rects>
      <tilted>0</tilted></_>
    <_>
      <rects>
        <_>
          2 3 8 5 -1.</_>
        <_>
          6 3 4 5 2.</_></rects>
      <tilted>0</tilted></_>
    <_>
      <rects>
        <_>
          3 1 12 10 -1.</_>
        <_>
          3 1 6 5 2.</_>
        <_>
          9 6 6 5 2.</_></rects>
      <tilted>0</tilted></_>
    <_>
      <rects>
        <_>
          6 1 5 4 -1.</_>
        <_>
          6 3 5 2 2.</_></rects>
      <tilted>0</tilted></_>
    <_>
      <rects>
        <_>
          6 5 12 4 -1.</_>
        <_>
          10 5 4 4 3.</_></rects>
      <tilted>0</tilted></_>
    <_>
      <rects>
        <_>
          10 2 10 21 -1.</_>
        <_>
          10 9 10 7 3.</_></rects>
      <tilted>0</tilted></_>
    <_>
      <rects>
        <_>
          10 18 6 6 -1.</_>
        <_>
          10 20 6 2 3.</_></rects>
      <tilted>0</tilted></_>
    <_>
      <rects>
        <_>
          16 2 8 21 -1.</_>
        <_>
          20 2 4 21 2.</_></rects>
      <tilted>0</tilted></_></features></cascade>
</opencv_storage>
