<?xml version="1.0"?>
<opencv_storage>
<cascade>
  <stageType>BOOST</stageType>
  <featureType>LBP</featureType>
  <height>24</height>
  <width>24</width>
  <stageParams>
    <boostType>GAB</boostType>
    <minHitRate>9.9500000476837158e-01</minHitRate>
    <maxFalseAlarm>5.0000000000000000e-01</maxFalseAlarm>
    <weightTrimRate>9.4999998807907104e-01</weightTrimRate>
    <maxDepth>1</maxDepth>
    <maxWeakCount>100</maxWeakCount></stageParams>
  <featureParams>
    <maxCatCount>256</maxCatCount>
    <featSize>1</featSize></featureParams>
  <stageNum>4</stageNum>
  <stages>
    <!-- stage 0 -->
    <_>
      <maxWeakCount>1</maxWeakCount>
      <stageThreshold>9.3835616111755371e-01</stageThreshold>
      <weakClassifiers>
        <_>
          <internalNodes>
            0 -1 4 -2097153 -1 -2097345 -8225 -1025 -4198405 -1 -17</internalNodes>
          <leafValues>
            -1. 9.3835616111755371e-01</leafValues></_></weakClassifiers></_>
    <!-- stage 1 -->
    <_>
      <maxWeakCount>2</maxWeakCount>
      <stageThreshold>-1.1516806483268738e-01</stageThreshold>
      <weakClassifiers>
        <_>
          <internalNodes>
            0 -1 1 -1 -10486017 -66332705 -4353 -67114049 -2377333
            -5243169 -4353</internalNodes>
          <leafValues>
            -9.9599599838256836e-01 9.3706291913986206e-01</leafValues></_>
        <_>
          <internalNodes>
            0 -1 3 -268435457 -10617889 -70492297 -6294529 -606086209
            -82051105 -1310721 -1</internalNodes>
          <leafValues>
            -9.9581104516983032e-01 8.8082790374755859e-01</leafValues></_></weakClassifiers></_>
    <!-- stage 2 -->
    <_>
      <maxWeakCount>2</maxWeakCount>
      <stageThreshold>-2.2621321678161621e-01</stageThreshold>
      <weakClassifiers>
        <_>
          <internalNodes>
            0 -1 0 -275777537 -2098209 -70000641 -11265 -273940737 -1537
            -69206017 -65</internalNodes>
          <leafValues>
            -9.9194091558456421e-01 7.7704918384552002e-01</leafValues></_>
        <_>
          <internalNodes>
            0 -1 7 -1 -8 -606076961 -2097156 -132097 -237634629 -1048577
            -1</internalNodes>
          <leafValues>
            -9.9443548917770386e-01 7.6572769880294800e-01</leafValues></_></weakClassifiers></_>
    <!-- stage 3 -->
    <_>
      <maxWeakCount>3</maxWeakCount>
      <stageThreshold>-1.2592837810516357e+00</stageThreshold>
      <weakClassifiers>
        <_>
          <internalNodes>
            0 -1 5 -470286337 -71042049 -16809985 -67436545 -271188001
            -1190913 -16908289 -131077</internalNodes>
          <leafValues>
            -9.8926174640655518e-01 7.6237624883651733e-01</leafValues></_>
        <_>
          <internalNodes>
            0 -1 2 -8193 -533065 -138412033 -9 -142608385 -53249
            -1310769 -1048593</internalNodes>
          <leafValues>
            -9.9070489406585693e-01 7.1073722839355469e-01</leafValues></_>
        <_>
          <internalNodes>
            0 -1 6 -16785409 -2102277 -580919809 -1 -87557121 -4212289
            -140510209 -196615</internalNodes>
          <leafValues>
            -9.8833179473876953e-01 7.2068285942077637e-01</leafValues></_></weakClassifiers></_></stages>
  <features>
    <_>
      <rect>
        0 0 5 2</rect></_>
    <_>
      <rect>
        1 0 4 6</rect></_>
    <_>
      <rect>
        2 4 7 3</rect></_>
    <_>
      <rect>
        3 10 3 4</rect></_>
    <_>
      <rect>
        5 10 6 4</rect></_>
    <_>
      <rect>
        7 10 4 4</rect></_>
    <_>
      <rect>
        9 19 2 1</rect></_>
    <_>
      <rect>
        10 3 2 7</rect></_></features></cascade>
</opencv_storage>
