<?xml version="1.0"?>
<opencv_storage>
<cascade>
  <stageType>BOOST</stageType>
  <featureType>HAAR</featureType>
  <height>24</height>
  <width>24</width>
  <stageParams>
    <boostType>GAB</boostType>
    <minHitRate>9.9500000476837158e-01</minHitRate>
    <maxFalseAlarm>5.0000000000000000e-01</maxFalseAlarm>
    <weightTrimRate>9.4999998807907104e-01</weightTrimRate>
    <maxDepth>1</maxDepth>
    <maxWeakCount>100</maxWeakCount></stageParams>
  <featureParams>
    <maxCatCount>0</maxCatCount>
    <featSize>1</featSize>
    <mode>BASIC</mode></featureParams>
  <stageNum>4</stageNum>
  <stages>
    <!-- stage 0 -->
    <_>
      <maxWeakCount>1</maxWeakCount>
      <stageThreshold>9.1919189691543579e-01</stageThreshold>
      <weakClassifiers>
        <_>
          <internalNodes>
            0 -1 0 4.0310508012771606e-01</internalNodes>
          <leafValues>
            -1. 9.1919189691543579e-01</leafValues></_></weakClassifiers></_>
    <!-- stage 1 -->
    <_>
      <maxWeakCount>1</maxWeakCount>
      <stageThreshold>7.8683388233184814e-01</stageThreshold>
      <weakClassifiers>
        <_>
          <internalNodes>
            0 -1 4 -6.2245443463325500e-02</internalNodes>
          <leafValues>
            7.8683388233184814e-01 -1.</leafValues></_></weakClassifiers></_>
    <!-- stage 2 -->
    <_>
      <maxWeakCount>2</maxWeakCount>
      <stageThreshold>-2.8037059307098389e-01</stageThreshold>
      <weakClassifiers>
        <_>
          <internalNodes>
            0 -1 3 1.7763569951057434e-01</internalNodes>
          <leafValues>
            8.5135138034820557e-01 -9.7775530815124512e-01</leafValues></_>
        <_>
          <internalNodes>
            0 -1 5 -1.9575003534555435e-02</internalNodes>
          <leafValues>
            6.9738471508026123e-01 -9.9351418018341064e-01</leafValues></_></weakClassifiers></_>
    <!-- stage 3 -->
    <_>
      <maxWeakCount>2</maxWeakCount>
      <stageThreshold>-2.0374447107315063e-01</stageThreshold>
      <weakClassifiers>
        <_>
          <internalNodes>
            0 -1 2 -5.1552049815654755e-02</internalNodes>
          <leafValues>
            6.6978192329406738e-01 -9.6473026275634766e-01</leafValues></_>
        <_>
          <internalNodes>
            0 -1 1 4.4371005892753601e-01</internalNodes>
          <leafValues>
            -8.7352639436721802e-01 8.8135194778442383e-01</leafValues></_></weakClassifiers></_></stages>
  <features>
    <_>
      <rects>
        <_>
          1 5 21 14 -1.</_>
        <_>
          8 5 7 14 3.</_></rects>
      <tilted>0</tilted></_>
    <_>
      <rects>
        <_>
          1 6 21 10 -1.</_>
        <_>
          8 6 7 10 3.</_></rects>
      <tilted>0</tilted></_>
    <_>
      <rects>
        <_>
          1 20 21 4 -1.</_>
        <_>
          1 22 21 2 2.</_></rects>
      <tilted>0</tilted></_>
    <_>
      <rects>
        <_>
          4 0 15 23 -1.</_>
        <_>
          9 0 5 23 3.</_></rects>
      <tilted>0</tilted></_>
    <_>
      <rects>
        <_>
          5 7 13 9 -1.</_>
        <_>
          5 10 13 3 3.</_></rects>
      <tilted>0</tilted></_>
    <_>
      <rects>
        <_>
          7 19 9 3 -1.</_>
        <_>
          10 19 3 3 3.</_></rects>
      <tilted>0</tilted></_></features></cascade>
</opencv_storage>
