<?xml version="1.0"?>
<opencv_storage>
<cascade>
  <stageType>BOOST</stageType>
  <featureType>LBP</featureType>
  <height>24</height>
  <width>24</width>
  <stageParams>
    <boostType>GAB</boostType>
    <minHitRate>9.9500000476837158e-01</minHitRate>
    <maxFalseAlarm>5.0000000000000000e-01</maxFalseAlarm>
    <weightTrimRate>9.4999998807907104e-01</weightTrimRate>
    <maxDepth>1</maxDepth>
    <maxWeakCount>100</maxWeakCount></stageParams>
  <featureParams>
    <maxCatCount>256</maxCatCount>
    <featSize>1</featSize></featureParams>
  <stageNum>4</stageNum>
  <stages>
    <!-- stage 0 -->
    <_>
      <maxWeakCount>1</maxWeakCount>
      <stageThreshold>9.1919189691543579e-01</stageThreshold>
      <weakClassifiers>
        <_>
          <internalNodes>
            0 -1 0 -1 -2621953 -33554481 -8389649 -1 -34603521 -1 -1</internalNodes>
          <leafValues>
            -1. 9.1919189691543579e-01</leafValues></_></weakClassifiers></_>
    <!-- stage 1 -->
    <_>
      <maxWeakCount>2</maxWeakCount>
      <stageThreshold>-1.2390565127134323e-01</stageThreshold>
      <weakClassifiers>
        <_>
          <internalNodes>
            0 -1 2 -2098241 -4214337 -717258753 -2108481 -74712065
            -332610 -68427777 -1048609</internalNodes>
          <leafValues>
            -9.9799400568008423e-01 9.1836732625961304e-01</leafValues></_>
        <_>
          <internalNodes>
            0 -1 4 -134217729 -2108420 -212208129 -2051 -27264001
            -24141619 -151000065 -1</internalNodes>
          <leafValues>
            -1. 8.7408834695816040e-01</leafValues></_></weakClassifiers></_>
    <!-- stage 2 -->
    <_>
      <maxWeakCount>1</maxWeakCount>
      <stageThreshold>8.8118809461593628e-01</stageThreshold>
      <weakClassifiers>
        <_>
          <internalNodes>
            0 -1 3 -1 -2100257 -541066753 -26657 -67108865 -1070913
            -16777217 -16777217</internalNodes>
          <leafValues>
            -1. 8.8118809461593628e-01</leafValues></_></weakClassifiers></_>
    <!-- stage 3 -->
    <_>
      <maxWeakCount>2</maxWeakCount>
      <stageThreshold>-1.9884954392910004e-01</stageThreshold>
      <weakClassifiers>
        <_>
          <internalNodes>
            0 -1 1 -8389633 -8707 -48234497 -147457 -104857601 -67113217
            -541065217 -8227</internalNodes>
          <leafValues>
            -9.9798655509948730e-01 8.4918034076690674e-01</leafValues></_>
        <_>
          <internalNodes>
            0 -1 5 -2049 -2049 -1091833857 -2049 -67109921 -67113089
            -2099203 -1</internalNodes>
          <leafValues>
            -1. 7.9913705587387085e-01</leafValues></_></weakClassifiers></_></stages>
  <features>
    <_>
      <rect>
        0 3 5 6</rect></_>
    <_>
      <rect>
        7 20 3 1</rect></_>
    <_>
      <rect>
        8 12 5 3</rect></_>
    <_>
      <rect>
        12 4 2 2</rect></_>
    <_>
      <rect>
        13 15 2 3</rect></_>
    <_>
      <rect>
        17 9 2 5</rect></_></features></cascade>
</opencv_storage>
